(function (global) {
  "use strict";

  global.KetiPpgHrRegressionModel = {
  "id": "keti_ppg_hr_ridge_regression_web",
  "version": "0.1.1-web",
  "kind": "ridge_regression_hr_estimator",
  "targetSampleRateHz": 32,
  "windowSec": 15,
  "windowSamples": 480,
  "featureCount": 69,
  "targetBpms": [
    45,
    50,
    55,
    60,
    65,
    70,
    75,
    80,
    85,
    90,
    95,
    100,
    105,
    110,
    115,
    120,
    125,
    130,
    135,
    140,
    145,
    150,
    155,
    160,
    165,
    170,
    175,
    180
  ],
  "training": {
    "status": "trained",
    "method": "ridge_regression_frequency_autocorr_features",
    "dataset": {
      "name": "PPG-DaLiA subject 1 subset",
      "file": "ppg_dalia_subject1_acc_ppg_activity_temp.csv",
      "rows": 298950,
      "parsedSamples": 298950,
      "sampleRateHz": 32,
      "windowSec": 15,
      "strideSec": 3,
      "windowSamples": 480,
      "strideSamples": 96,
      "windows": 3110,
      "trainWindows": 2488,
      "validationWindows": 622,
      "label": "hr column"
    },
    "metrics": {
      "ridgeLambda": 0.05,
      "train": {
        "count": 2488,
        "maeBpm": 7.3021,
        "rmseBpm": 9.4992,
        "maxAbsBpm": 48.6343
      },
      "validation": {
        "count": 622,
        "maeBpm": 7.3656,
        "rmseBpm": 9.5157,
        "maxAbsBpm": 43.9077
      }
    },
    "note": "Direct HR regression trained from window-level HR labels. It estimates HR only; HRV still requires beat intervals from the CNN peak path."
  },
  "input": {
    "signal": "ADC PPG window",
    "preprocessing": [
      "linear_resample",
      "window_zscore",
      "autocorrelation",
      "spectral_features"
    ],
    "shape": [
      69
    ],
    "featureGroups": [
      "autocorr_centroid",
      "autocorr_peak",
      "spectral_centroid",
      "spectral_peak",
      "slope_stats",
      "target_bpm_corr",
      "target_bpm_spectrum"
    ]
  },
  "model": {
    "bias": 77.1057182,
    "means": [
      71.4706091,
      65.4441318,
      0.326849681,
      8.92753292,
      94.0484953,
      69.2303055,
      0.597598369,
      36.915844,
      0.205008525,
      0.290756154,
      1.39453981,
      0.0802893555,
      0.131792436,
      -0.0634884884,
      0.0307232863,
      0.0679513522,
      0.0608616778,
      0.0534226637,
      0.0262615312,
      0.00780066042,
      -0.0409417276,
      -0.0695695123,
      -0.135038826,
      -0.171643862,
      -0.209730866,
      -0.247838349,
      -0.284046229,
      -0.284046229,
      -0.315754794,
      -0.339576671,
      -0.339576671,
      -0.351758796,
      -0.351758796,
      -0.349218908,
      -0.349218908,
      -0.330376199,
      -0.330376199,
      -0.330376199,
      -0.294811205,
      -0.294811205,
      -0.294811205,
      0.250752653,
      0.270515334,
      0.277656498,
      0.268088425,
      0.282253964,
      0.27257341,
      0.236131113,
      0.204395163,
      0.197377855,
      0.192720215,
      0.162370128,
      0.165527979,
      0.176413597,
      0.147741027,
      0.121184744,
      0.110456608,
      0.112506785,
      0.107462003,
      0.104200302,
      0.0988536209,
      0.0972282664,
      0.0887564178,
      0.0898087892,
      0.0885594771,
      0.0790358012,
      0.07045358,
      0.0685966518,
      0.0685142845
    ],
    "scales": [
      22.7267685,
      24.2133822,
      0.254194364,
      8.67728703,
      6.70938602,
      19.312969,
      0.190634162,
      2.36586772,
      0.046574438,
      0.0550145827,
      0.637893221,
      0.0198191016,
      0.032171454,
      0.296814421,
      0.298143554,
      0.261794309,
      0.251604036,
      0.284958016,
      0.294795151,
      0.282096103,
      0.24760441,
      0.235275873,
      0.233767909,
      0.239458099,
      0.243242663,
      0.241901582,
      0.234476786,
      0.234476786,
      0.221633222,
      0.20461309,
      0.20461309,
      0.185353995,
      0.185353995,
      0.167857582,
      0.167857582,
      0.158146666,
      0.158146666,
      0.158146666,
      0.160312046,
      0.160312046,
      0.160312046,
      0.186804126,
      0.176458618,
      0.16995402,
      0.171674191,
      0.194913668,
      0.191125294,
      0.154122754,
      0.120084776,
      0.116883426,
      0.128990259,
      0.103191861,
      0.119846496,
      0.151066875,
      0.109122126,
      0.0784505003,
      0.0706297429,
      0.0707621814,
      0.0726042799,
      0.0635158643,
      0.056783674,
      0.0579220999,
      0.0550355458,
      0.0643496137,
      0.0726185457,
      0.0566799299,
      0.0455878142,
      0.0445333255,
      0.0449354274
    ],
    "weights": [
      -0.763838896,
      0.13605905,
      2.24814226,
      0.143979506,
      10.168227,
      0.840080772,
      -1.23693302,
      -0.237226841,
      0.461291244,
      0.279673064,
      0.506448359,
      4.00290377,
      3.47758137,
      -3.4002204,
      7.44420499,
      -14.011935,
      6.03693667,
      3.94561728,
      -22.4858747,
      11.1945865,
      12.3959022,
      -2.25290218,
      -14.9849983,
      -11.8505565,
      14.8564872,
      26.5393241,
      -0.786321732,
      -0.786321732,
      -27.922952,
      -12.0046862,
      -12.0046862,
      18.3325556,
      18.3325556,
      9.36676367,
      9.36676367,
      -8.30121822,
      -8.30121822,
      -8.30121822,
      0.420368665,
      0.420368665,
      0.420368665,
      3.05954944,
      3.03023071,
      3.38952309,
      2.42306041,
      2.34919827,
      1.57519314,
      0.199691442,
      0.0405543115,
      0.733766021,
      0.604176911,
      -0.025038801,
      -0.262106241,
      -0.30886004,
      -0.107392601,
      -0.240052956,
      -0.93019908,
      -1.83315825,
      -1.05739168,
      -0.897387927,
      -1.91170975,
      -1.64452365,
      -1.09323831,
      -2.27497959,
      -2.01988817,
      -0.729644749,
      -1.28075696,
      -0.874774472,
      -1.48651804
    ],
    "clampBpm": [
      35,
      220
    ]
  },
  "output": {
    "signal": "hr_bpm",
    "downstream": [
      "comparison_against_cnn_peak_hr"
    ]
  }
};
})(window);
